{"learner":{"attributes":{"scikit_learn":"{\"_estimator_type\": \"regressor\"}"},"feature_names":["arima_pred","lstm_pred","inflation_rate_cpi","interest_rate","fx_usd_inr","commodity_price_oil","consumer_confidence_index","employment_rate"],"feature_types":["float","float","float","float","float","float","float","float"],"gradient_booster":{"model":{"cats":{"enc":[],"feature_segments":[],"sorted_idx":[]},"gbtree_model_param":{"num_parallel_tree":"1","num_trees":"50"},"iteration_indptr":[0,1,2,3,4,5,6,7,8,9,10,11,12,13,14,15,16,17,18,19,20,21,22,23,24,25,26,27,28,29,30,31,32,33,34,35,36,37,38,39,40,41,42,43,44,45,46,47,48,49,50],"tree_info":[0,0,0,0,0,0,0,0,0,0,0,0,0,0,0,0,0,0,0,0,0,0,0,0,0,0,0,0,0,0,0,0,0,0,0,0,0,0,0,0,0,0,0,0,0,0,0,0,0,0],"trees":[{"base_weights":[8.9946545E-5,-4.0344036E3,5.3180776E3,-7.5239316E3,-1.762582E3,2.7671887E3,8.286904E3,-5.2429895E2,-3.019078E2,-1.5378925E2,-2.1666494E1,7.996078E1,1.7454211E2,3.0138428E2,4.72909E2],"categories":[],"categories_nodes":[],"categories_segments":[],"categories_sizes":[],"default_left":[0,0,0,0,0,0,0,0,0,0,0,0,0,0,0],"id":0,"left_children":[1,3,5,7,9,11,13,-1,-1,-1,-1,-1,-1,-1,-1],"loss_changes":[3.2826565E9,6.764384E8,4.7689626E8,8.63159E7,9.292837E7,2.5690112E7,2.2374144E7,0E0,0E0,0E0,0E0,0E0,0E0,0E0,0E0],"parents":[2147483647,0,0,1,1,2,2,3,3,4,4,5,5,6,6],"right_children":[2,4,6,8,10,12,14,-1,-1,-1,-1,-1,-1,-1,-1],"split_conditions":[7.20221E3,1.8155186E3,1.1952182E4,-1.6007434E3,4.819628E3,9.056926E3,1.4342923E4,-5.2429895E2,-3.019078E2,-1.5378925E2,-2.1666494E1,7.996078E1,1.7454211E2,3.0138428E2,4.72909E2],"split_indices":[1,1,1,1,1,1,1,0,0,0,0,0,0,0,0],"split_type":[0,0,0,0,0,0,0,0,0,0,0,0,0,0,0],"sum_hessian":[1.51E2,8.6E1,6.5E1,3.3E1,5.3E1,3.6E1,2.9E1,9E0,2.4E1,2.6E1,2.7E1,1.5E1,2.1E1,1.2E1,1.7E1],"tree_param":{"num_deleted":"0","num_feature":"8","num_nodes":"15","size_leaf_vector":"1"}},{"base_weights":[1.7861778E-1,-4.001367E3,4.871623E3,-7.523824E3,-2.0072745E3,2.4797722E3,7.8983696E3,-5.26262E2,-3.0763654E2,-1.698228E2,-3.6820415E1,5.9160336E1,1.6051915E2,3.0797113E2,4.7228897E2],"categories":[],"categories_nodes":[],"categories_segments":[],"categories_sizes":[],"default_left":[0,0,0,0,0,0,0,0,0,0,0,0,0,0,0],"id":1,"left_children":[1,3,5,7,9,11,13,-1,-1,-1,-1,-1,-1,-1,-1],"loss_changes":[2.9824758E9,5.749225E8,4.7994112E8,5.86976E7,9.459934E7,3.4092864E7,2.254528E7,0E0,0E0,0E0,0E0,0E0,0E0,0E0,0E0],"parents":[2147483647,0,0,1,1,2,2,3,3,4,4,5,5,6,6],"right_children":[2,4,6,8,10,12,14,-1,-1,-1,-1,-1,-1,-1,-1],"split_conditions":[6.980969E3,1.394265E3,1.1952182E4,-2.0669556E3,4.249653E3,8.782615E3,1.510648E4,-5.26262E2,-3.0763654E2,-1.698228E2,-3.6820415E1,5.9160336E1,1.6051915E2,3.0797113E2,4.7228897E2],"split_indices":[1,1,1,1,1,1,1,0,0,0,0,0,0,0,0],"split_type":[0,0,0,0,0,0,0,0,0,0,0,0,0,0,0],"sum_hessian":[1.51E2,8.3E1,6.8E1,2.9E1,5.4E1,3.9E1,2.9E1,7E0,2.2E1,2.5E1,2.9E1,1.5E1,2.4E1,1.6E1,1.3E1],"tree_param":{"num_deleted":"0","num_feature":"8","num_nodes":"15","size_leaf_vector":"1"}},{"base_weights":[-9.7392835E-2,-3.7141023E3,4.7671343E3,-6.6316455E3,-1.4808381E3,2.5255474E3,7.617298E3,-4.694824E2,-2.6311996E2,-1.24719666E2,-1.3944348E1,7.222789E1,1.647598E2,3.0085098E2,4.5620123E2],"categories":[],"categories_nodes":[],"categories_segments":[],"categories_sizes":[],"default_left":[0,0,0,0,0,0,0,0,0,0,0,0,0,0,0],"id":2,"left_children":[1,3,5,7,9,11,13,-1,-1,-1,-1,-1,-1,-1,-1],"loss_changes":[2.708945E9,5.505249E8,4.088178E8,9.031411E7,6.0216544E7,2.7687216E7,1.5024768E7,0E0,0E0,0E0,0E0,0E0,0E0,0E0,0E0],"parents":[2147483647,0,0,1,1,2,2,3,3,4,4,5,5,6,6],"right_children":[2,4,6,8,10,12,14,-1,-1,-1,-1,-1,-1,-1,-1],"split_conditions":[7.0646265E3,2.1073599E3,1.2254457E4,-1.1149225E3,5.0239795E3,9.0639375E3,1.5620146E4,-4.694824E2,-2.6311996E2,-1.24719666E2,-1.3944348E1,7.222789E1,1.647598E2,3.0085098E2,4.5620123E2],"split_indices":[1,1,1,1,1,1,1,0,0,0,0,0,0,0,0],"split_type":[0,0,0,0,0,0,0,0,0,0,0,0,0,0,0],"sum_hessian":[1.51E2,8.5E1,6.6E1,3.6E1,4.9E1,3.8E1,2.8E1,1E1,2.6E1,2.6E1,2.3E1,1.7E1,2.1E1,1.6E1,1.2E1],"tree_param":{"num_deleted":"0","num_feature":"8","num_nodes":"15","size_leaf_vector":"1"}},{"base_weights":[7.152132E-1,-4.0386077E3,3.98757E3,-6.936503E3,-2.2036582E3,1.6696118E3,6.869999E3,-4.9646933E2,-2.8620193E2,-1.6958986E2,-5.7696392E1,2.865315E1,1.2400332E2,2.3607771E2,3.9875766E2],"categories":[],"categories_nodes":[],"categories_segments":[],"categories_sizes":[],"default_left":[0,0,0,0,0,0,0,0,0,0,0,0,0,0,0],"id":3,"left_children":[1,3,5,7,9,11,13,-1,-1,-1,-1,-1,-1,-1,-1],"loss_changes":[2.4639416E9,3.8884365E8,5.029938E8,4.839808E7,5.595293E7,3.768169E7,4.307315E7,0E0,0E0,0E0,0E0,0E0,0E0,0E0,0E0],"parents":[2147483647,0,0,1,1,2,2,3,3,4,4,5,5,6,6],"right_children":[2,4,6,8,10,12,14,-1,-1,-1,-1,-1,-1,-1,-1],"split_conditions":[6.314921E3,1.2801683E3,1.1474398E4,-2.9219954E3,3.8418792E3,8.501671E3,1.4012153E4,-4.9646933E2,-2.8620193E2,-1.6958986E2,-5.7696392E1,2.865315E1,1.2400332E2,2.3607771E2,3.9875766E2],"split_indices":[1,1,1,1,1,1,1,0,0,0,0,0,0,0,0],"split_type":[0,0,0,0,0,0,0,0,0,0,0,0,0,0,0],"sum_hessian":[1.51E2,7.5E1,7.6E1,2.8E1,4.7E1,4.3E1,3.3E1,6E0,2.2E1,2.1E1,2.6E1,1.9E1,2.4E1,1.3E1,2E1],"tree_param":{"num_deleted":"0","num_feature":"8","num_nodes":"15","size_leaf_vector":"1"}},{"base_weights":[-7.8417325E-1,-3.849966E3,3.7984187E3,-6.6166665E3,-2.0982104E3,1.5327174E3,6.4734683E3,-4.622918E2,-2.6799237E2,-1.614958E2,-5.4918427E1,2.7292114E1,1.145625E2,2.3747998E2,3.9188498E2],"categories":[],"categories_nodes":[],"categories_segments":[],"categories_sizes":[],"default_left":[0,0,0,0,0,0,0,0,0,0,0,0,0,0,0],"id":4,"left_children":[1,3,5,7,9,11,13,-1,-1,-1,-1,-1,-1,-1,-1],"loss_changes":[2.237445E9,3.544571E8,4.5676454E8,4.627123E7,5.076563E7,3.0938152E7,4.508544E7,0E0,0E0,0E0,0E0,0E0,0E0,0E0,0E0],"parents":[2147483647,0,0,1,1,2,2,3,3,4,4,5,5,6,6],"right_children":[2,4,6,8,10,12,14,-1,-1,-1,-1,-1,-1,-1,-1],"split_conditions":[6.314921E3,1.2801683E3,1.1184031E4,-2.0669556E3,3.8418792E3,8.501671E3,1.4342923E4,-4.622918E2,-2.6799237E2,-1.614958E2,-5.4918427E1,2.7292114E1,1.145625E2,2.3747998E2,3.9188498E2],"split_indices":[1,1,1,1,1,1,1,0,0,0,0,0,0,0,0],"split_type":[0,0,0,0,0,0,0,0,0,0,0,0,0,0,0],"sum_hessian":[1.51E2,7.5E1,7.6E1,2.8E1,4.7E1,4.2E1,3.4E1,7E0,2.1E1,2.1E1,2.6E1,1.9E1,2.3E1,1.7E1,1.7E1],"tree_param":{"num_deleted":"0","num_feature":"8","num_nodes":"15","size_leaf_vector":"1"}},{"base_weights":[-1.8994542E0,-3.1773071E3,4.183894E3,-5.4314365E3,-9.5275446E2,2.4470024E3,3.4672583E2,-4.1103476E2,-2.1685474E2,-8.420196E1,-1.8404064E0,8.320749E1,1.8075642E2],"categories":[],"categories_nodes":[],"categories_segments":[],"categories_sizes":[],"default_left":[0,0,0,0,0,0,0,0,0,0,0,0,0],"id":5,"left_children":[1,3,5,7,9,11,-1,-1,-1,-1,-1,-1,-1],"loss_changes":[2.0336169E9,4.3108064E8,2.983484E8,9.559936E7,3.0079804E7,3.2391648E7,0E0,0E0,0E0,0E0,0E0,0E0,0E0],"parents":[2147483647,0,0,1,1,2,2,3,3,4,4,5,5],"right_children":[2,4,6,8,10,12,-1,-1,-1,-1,-1,-1,-1],"split_conditions":[7.20221E3,2.8697278E3,1.2773701E4,-1.1149225E3,5.4431787E3,1.0123537E4,3.4672583E2,-4.1103476E2,-2.1685474E2,-8.420196E1,-1.8404064E0,8.320749E1,1.8075642E2],"split_indices":[1,1,1,1,1,1,0,0,0,0,0,0,0],"split_type":[0,0,0,0,0,0,0,0,0,0,0,0,0],"sum_hessian":[1.51E2,8.6E1,6.5E1,4.2E1,4.4E1,4.1E1,2.4E1,1E1,3.2E1,2.4E1,2E1,2.6E1,1.5E1],"tree_param":{"num_deleted":"0","num_feature":"8","num_nodes":"13","size_leaf_vector":"1"}},{"base_weights":[-2.483673E0,-3.1920627E3,3.7794814E3,-5.9622656E3,-1.5939491E3,1.9016963E3,6.2198047E3,-4.3776376E2,-2.4496048E2,-1.3071123E2,-2.7659254E1,4.3845493E1,1.2612416E2,2.419574E2,3.8265186E2],"categories":[],"categories_nodes":[],"categories_segments":[],"categories_sizes":[],"default_left":[0,0,0,0,0,0,0,0,0,0,0,0,0,0,0],"id":6,"left_children":[1,3,5,7,9,11,13,-1,-1,-1,-1,-1,-1,-1,-1],"loss_changes":[1.8456216E9,3.5794566E8,3.089401E8,4.617984E7,5.589464E7,2.3871152E7,2.2329856E7,0E0,0E0,0E0,0E0,0E0,0E0,0E0,0E0],"parents":[2147483647,0,0,1,1,2,2,3,3,4,4,5,5,6,6],"right_children":[2,4,6,8,10,12,14,-1,-1,-1,-1,-1,-1,-1,-1],"split_conditions":[6.8589233E3,1.394265E3,1.1952182E4,-2.9219954E3,4.5656055E3,8.782615E3,1.5620146E4,-4.3776376E2,-2.4496048E2,-1.3071123E2,-2.7659254E1,4.3845493E1,1.2612416E2,2.419574E2,3.8265186E2],"split_indices":[1,1,1,1,1,1,1,0,0,0,0,0,0,0,0],"split_type":[0,0,0,0,0,0,0,0,0,0,0,0,0,0,0],"sum_hessian":[1.51E2,8.2E1,6.9E1,2.9E1,5.3E1,4E1,2.9E1,6E0,2.3E1,2.6E1,2.7E1,1.6E1,2.4E1,1.7E1,1.2E1],"tree_param":{"num_deleted":"0","num_feature":"8","num_nodes":"15","size_leaf_vector":"1"}},{"base_weights":[-2.6654422E0,-3.426004E3,3.2040398E3,-5.907563E3,-1.958752E3,1.2602587E3,5.6116426E3,-4.190025E2,-2.401044E2,-1.4521342E2,-5.2349854E1,2.1204174E1,9.87121E1,2.2067357E2,3.6499103E2],"categories":[],"categories_nodes":[],"categories_segments":[],"categories_sizes":[],"default_left":[0,0,0,0,0,0,0,0,0,0,0,0,0,0,0],"id":7,"left_children":[1,3,5,7,9,11,13,-1,-1,-1,-1,-1,-1,-1,-1],"loss_changes":[1.6795779E9,2.5786797E8,3.626363E8,3.355661E7,3.8339056E7,2.6028432E7,3.857792E7,0E0,0E0,0E0,0E0,0E0,0E0,0E0,0E0],"parents":[2147483647,0,0,1,1,2,2,3,3,4,4,5,5,6,6],"right_children":[2,4,6,8,10,12,14,-1,-1,-1,-1,-1,-1,-1,-1],"split_conditions":[6.1816724E3,1.1223007E3,1.1184031E4,-2.9219954E3,3.5523218E3,8.501671E3,1.5620146E4,-4.190025E2,-2.401044E2,-1.4521342E2,-5.2349854E1,2.1204174E1,9.87121E1,2.2067357E2,3.6499103E2],"split_indices":[1,1,1,1,1,1,1,0,0,0,0,0,0,0,0],"split_type":[0,0,0,0,0,0,0,0,0,0,0,0,0,0,0],"sum_hessian":[1.51E2,7.3E1,7.8E1,2.6E1,4.7E1,4.4E1,3.4E1,6E0,2E1,2.2E1,2.5E1,2.1E1,2.3E1,2.2E1,1.2E1],"tree_param":{"num_deleted":"0","num_feature":"8","num_nodes":"15","size_leaf_vector":"1"}},{"base_weights":[-3.5262034E0,-3.2241868E3,3.0933079E3,-6.0436997E3,-2.0157891E3,1.2750175E3,5.408889E3,-4.1536563E2,-2.4446329E2,-1.542914E2,-5.284485E1,2.1413822E1,9.676396E1,2.0903923E2,3.4323483E2],"categories":[],"categories_nodes":[],"categories_segments":[],"categories_sizes":[],"default_left":[0,0,0,0,0,0,0,0,0,0,0,0,0,0,0],"id":8,"left_children":[1,3,5,7,9,11,13,-1,-1,-1,-1,-1,-1,-1,-1],"loss_changes":[1.5259987E9,2.4334918E8,3.215148E8,1.6873472E7,5.214539E7,2.4329344E7,3.2088192E7,0E0,0E0,0E0,0E0,0E0,0E0,0E0,0E0],"parents":[2147483647,0,0,1,1,2,2,3,3,4,4,5,5,6,6],"right_children":[2,4,6,8,10,12,14,-1,-1,-1,-1,-1,-1,-1,-1],"split_conditions":[6.2487134E3,3.846623E2,1.1474398E4,-3.460515E3,3.3180823E3,8.501671E3,1.510648E4,-4.1536563E2,-2.4446329E2,-1.542914E2,-5.284485E1,2.1413822E1,9.676396E1,2.0903923E2,3.4323483E2],"split_indices":[1,1,1,1,1,1,1,0,0,0,0,0,0,0,0],"split_type":[0,0,0,0,0,0,0,0,0,0,0,0,0,0,0],"sum_hessian":[1.51E2,7.4E1,7.7E1,2.1E1,5.3E1,4.4E1,3.3E1,5E0,1.6E1,2.4E1,2.9E1,2E1,2.4E1,2E1,1.3E1],"tree_param":{"num_deleted":"0","num_feature":"8","num_nodes":"15","size_leaf_vector":"1"}},{"base_weights":[-4.6427226E0,-3.242259E3,2.7987158E3,-5.771507E3,-2.064545E3,1.0637815E3,5.0980913E3,-4.135865E2,-2.3781807E2,-1.468854E2,-5.7277966E1,9.339743E0,8.417647E1,2.0007442E2,3.3230368E2],"categories":[],"categories_nodes":[],"categories_segments":[],"categories_sizes":[],"default_left":[0,0,0,0,0,0,0,0,0,0,0,0,0,0,0],"id":9,"left_children":[1,3,5,7,9,11,13,-1,-1,-1,-1,-1,-1,-1,-1],"loss_changes":[1.3886564E9,1.9957434E8,3.216965E8,1.649472E7,3.6755904E7,2.5774024E7,3.2819008E7,0E0,0E0,0E0,0E0,0E0,0E0,0E0,0E0],"parents":[2147483647,0,0,1,1,2,2,3,3,4,4,5,5,6,6],"right_children":[2,4,6,8,10,12,14,-1,-1,-1,-1,-1,-1,-1,-1],"split_conditions":[5.9831733E3,3.846623E2,1.1184031E4,-3.9453616E3,3.3180823E3,7.8246064E3,1.5620146E4,-4.135865E2,-2.3781807E2,-1.468854E2,-5.7277966E1,9.339743E0,8.417647E1,2.0007442E2,3.3230368E2],"split_indices":[1,1,1,1,1,1,1,0,0,0,0,0,0,0,0],"split_type":[0,0,0,0,0,0,0,0,0,0,0,0,0,0,0],"sum_hessian":[1.51E2,7E1,8.1E1,2.1E1,4.9E1,4.7E1,3.4E1,4E0,1.7E1,2.4E1,2.5E1,2E1,2.7E1,2.2E1,1.2E1],"tree_param":{"num_deleted":"0","num_feature":"8","num_nodes":"15","size_leaf_vector":"1"}},{"base_weights":[-5.921597E0,-3.0921965E3,2.666413E3,-5.597383E3,-2.0000178E3,1.090727E3,4.9730156E3,-4.1695645E2,-2.3385701E2,-1.453601E2,-5.7550106E1,1.5304303E1,9.016192E1,1.9451953E2,3.1696658E2],"categories":[],"categories_nodes":[],"categories_segments":[],"categories_sizes":[],"default_left":[0,0,0,0,0,0,0,0,0,0,0,0,0,0,0],"id":10,"left_children":[1,3,5,7,9,11,13,-1,-1,-1,-1,-1,-1,-1,-1],"loss_changes":[1.261874E9,1.83069E8,2.9260326E8,1.3981184E7,3.5934704E7,2.740134E7,2.4151424E7,0E0,0E0,0E0,0E0,0E0,0E0,0E0,0E0],"parents":[2147483647,0,0,1,1,2,2,3,3,4,4,5,5,6,6],"right_children":[2,4,6,8,10,12,14,-1,-1,-1,-1,-1,-1,-1,-1],"split_conditions":[5.9831733E3,2.5027446E2,1.1628665E4,-4.6661567E3,3.1202922E3,8.501671E3,1.5620146E4,-4.1695645E2,-2.3385701E2,-1.453601E2,-5.7550106E1,1.5304303E1,9.016192E1,1.9451953E2,3.1696658E2],"split_indices":[1,1,1,1,1,1,1,0,0,0,0,0,0,0,0],"split_type":[0,0,0,0,0,0,0,0,0,0,0,0,0,0,0],"sum_hessian":[1.51E2,7E1,8.1E1,2E1,5E1,4.9E1,3.2E1,3E0,1.7E1,2.3E1,2.7E1,2.4E1,2.5E1,2E1,1.2E1],"tree_param":{"num_deleted":"0","num_feature":"8","num_nodes":"15","size_leaf_vector":"1"}},{"base_weights":[-7.1832085E0,-2.3617368E3,3.1806304E3,-4.740865E3,-1.1119808E3,1.8417223E3,2.6246075E2,-3.553044E2,-1.9267363E2,-9.8075874E1,-1.1268916E1,6.273476E1,1.3402667E2],"categories":[],"categories_nodes":[],"categories_segments":[],"categories_sizes":[],"default_left":[0,0,0,0,0,0,0,0,0,0,0,0,0],"id":11,"left_children":[1,3,5,7,9,11,-1,-1,-1,-1,-1,-1,-1],"loss_changes":[1.1484052E9,2.5638128E8,1.7035923E8,3.5583296E7,4.39968E7,1.6825344E7,0E0,0E0,0E0,0E0,0E0,0E0,0E0],"parents":[2147483647,0,0,1,1,2,2,3,3,4,4,5,5],"right_children":[2,4,6,8,10,12,-1,-1,-1,-1,-1,-1,-1],"split_conditions":[7.4155527E3,1.394265E3,1.2773701E4,-2.9219954E3,4.675576E3,1.0123537E4,2.6246075E2,-3.553044E2,-1.9267363E2,-9.8075874E1,-1.1268916E1,6.273476E1,1.3402667E2],"split_indices":[1,1,1,1,1,1,0,0,0,0,0,0,0],"split_type":[0,0,0,0,0,0,0,0,0,0,0,0,0],"sum_hessian":[1.51E2,8.7E1,6.4E1,2.9E1,5.8E1,4E1,2.4E1,6E0,2.3E1,2.9E1,2.9E1,2.5E1,1.5E1],"tree_param":{"num_deleted":"0","num_feature":"8","num_nodes":"13","size_leaf_vector":"1"}},{"base_weights":[-8.1273775E0,-2.815206E3,2.422491E3,-5.2015273E3,-1.8432515E3,9.190415E2,4.4151504E3,-3.8799664E2,-2.1467888E2,-1.3356248E2,-5.190685E1,8.174239E0,7.264431E1,1.47105E2,2.6285422E2],"categories":[],"categories_nodes":[],"categories_segments":[],"categories_sizes":[],"default_left":[0,0,0,0,0,0,0,0,0,0,0,0,0,0,0],"id":12,"left_children":[1,3,5,7,9,11,13,-1,-1,-1,-1,-1,-1,-1,-1],"loss_changes":[1.04390624E9,1.550894E8,2.416031E8,1.3140224E7,3.1891808E7,1.9123268E7,2.7940544E7,0E0,0E0,0E0,0E0,0E0,0E0,0E0,0E0],"parents":[2147483647,0,0,1,1,2,2,3,3,4,4,5,5,6,6],"right_children":[2,4,6,8,10,12,14,-1,-1,-1,-1,-1,-1,-1,-1],"split_conditions":[5.9831733E3,1.869863E2,1.1184031E4,-4.6661567E3,3.1202922E3,7.8246064E3,1.4012153E4,-3.8799664E2,-2.1467888E2,-1.3356248E2,-5.190685E1,8.174239E0,7.264431E1,1.47105E2,2.6285422E2],"split_indices":[1,1,1,1,1,1,1,0,0,0,0,0,0,0,0],"split_type":[0,0,0,0,0,0,0,0,0,0,0,0,0,0,0],"sum_hessian":[1.51E2,7E1,8.1E1,1.9E1,5.1E1,4.7E1,3.4E1,3E0,1.6E1,2.4E1,2.7E1,2E1,2.7E1,1.4E1,2E1],"tree_param":{"num_deleted":"0","num_feature":"8","num_nodes":"15","size_leaf_vector":"1"}},{"base_weights":[-9.677511E0,-2.7575735E3,2.247638E3,-4.971585E3,-1.8168175E3,8.317578E2,4.206106E3,-3.7344678E2,-2.0457634E2,-1.2715148E2,-5.243296E1,6.2358227E0,6.914181E1,1.6284734E2,2.78092E2],"categories":[],"categories_nodes":[],"categories_segments":[],"categories_sizes":[],"default_left":[0,0,0,0,0,0,0,0,0,0,0,0,0,0,0],"id":13,"left_children":[1,3,5,7,9,11,13,-1,-1,-1,-1,-1,-1,-1,-1],"loss_changes":[9.49034E8,1.3468387E8,2.2942982E8,1.3396928E7,2.5225504E7,1.9309296E7,2.6923648E7,0E0,0E0,0E0,0E0,0E0,0E0,0E0,0E0],"parents":[2147483647,0,0,1,1,2,2,3,3,4,4,5,5,6,6],"right_children":[2,4,6,8,10,12,14,-1,-1,-1,-1,-1,-1,-1,-1],"split_conditions":[5.7818765E3,1.869863E2,1.1184031E4,-4.6661567E3,3.1202922E3,7.8246064E3,1.5620146E4,-3.7344678E2,-2.0457634E2,-1.2715148E2,-5.243296E1,6.2358227E0,6.914181E1,1.6284734E2,2.78092E2],"split_indices":[1,1,1,1,1,1,1,0,0,0,0,0,0,0,0],"split_type":[0,0,0,0,0,0,0,0,0,0,0,0,0,0,0],"sum_hessian":[1.51E2,6.8E1,8.3E1,1.9E1,4.9E1,4.9E1,3.4E1,3E0,1.6E1,2.4E1,2.5E1,2.2E1,2.7E1,2.2E1,1.2E1],"tree_param":{"num_deleted":"0","num_feature":"8","num_nodes":"15","size_leaf_vector":"1"}},{"base_weights":[-1.0781043E1,-2.4013699E3,2.3489011E3,-4.2998296E3,-1.3281742E3,1.1371892E3,4.31528E3,-3.271411E2,-1.7463289E2,-1.0175824E2,-3.2527325E1,2.6501303E1,9.29126E1,1.6773521E2,2.6982687E2],"categories":[],"categories_nodes":[],"categories_segments":[],"categories_sizes":[],"default_left":[0,0,0,0,0,0,0,0,0,0,0,0,0,0,0],"id":14,"left_children":[1,3,5,7,9,11,13,-1,-1,-1,-1,-1,-1,-1,-1],"loss_changes":[8.630771E8,1.491329E8,1.7855949E8,2.6031136E7,2.2629856E7,2.0467412E7,1.2016384E7,0E0,0E0,0E0,0E0,0E0,0E0,0E0,0E0],"parents":[2147483647,0,0,1,1,2,2,3,3,4,4,5,5,6,6],"right_children":[2,4,6,8,10,12,14,-1,-1,-1,-1,-1,-1,-1,-1],"split_conditions":[6.314921E3,1.1223007E3,1.2254457E4,-3.460515E3,3.8418792E3,9.0639375E3,1.5891141E4,-3.271411E2,-1.7463289E2,-1.0175824E2,-3.2527325E1,2.6501303E1,9.29126E1,1.6773521E2,2.6982687E2],"split_indices":[1,1,1,1,1,1,1,0,0,0,0,0,0,0,0],"split_type":[0,0,0,0,0,0,0,0,0,0,0,0,0,0,0],"sum_hessian":[1.51E2,7.5E1,7.6E1,2.6E1,4.9E1,4.8E1,2.8E1,5E0,2.1E1,2.3E1,2.6E1,2.7E1,2.1E1,1.7E1,1.1E1],"tree_param":{"num_deleted":"0","num_feature":"8","num_nodes":"15","size_leaf_vector":"1"}},{"base_weights":[-1.0762371E1,-2.0644907E3,2.4895847E3,-3.9994631E3,-1.0255857E3,1.4030107E3,4.3458345E3,-3.4717477E2,-1.6963548E2,-8.6075676E1,-1.5914508E1,3.8805836E1,1.011561E2,1.7280215E2,2.6674588E2],"categories":[],"categories_nodes":[],"categories_segments":[],"categories_sizes":[],"default_left":[0,0,0,0,0,0,0,0,0,0,0,0,0,0,0],"id":15,"left_children":[1,3,5,7,9,11,13,-1,-1,-1,-1,-1,-1,-1,-1],"loss_changes":[7.856649E8,1.6475942E8,1.3307248E8,2.8245472E7,2.701676E7,1.5923296E7,3.564256E6,0E0,0E0,0E0,0E0,0E0,0E0,0E0,0E0],"parents":[2147483647,0,0,1,1,2,2,3,3,4,4,5,5,6,6],"right_children":[2,4,6,8,10,12,14,-1,-1,-1,-1,-1,-1,-1,-1],"split_conditions":[6.980969E3,1.2801683E3,1.2773701E4,-4.6661567E3,4.5656055E3,9.289091E3,1.653039E4,-3.4717477E2,-1.6963548E2,-8.6075676E1,-1.5914508E1,3.8805836E1,1.011561E2,1.7280215E2,2.6674588E2],"split_indices":[1,1,1,1,1,1,1,0,0,0,0,0,0,0,0],"split_type":[0,0,0,0,0,0,0,0,0,0,0,0,0,0,0],"sum_hessian":[1.51E2,8.3E1,6.8E1,2.8E1,5.5E1,4.4E1,2.4E1,3E0,2.5E1,2.7E1,2.8E1,2.3E1,2.1E1,1.5E1,9E0],"tree_param":{"num_deleted":"0","num_feature":"8","num_nodes":"15","size_leaf_vector":"1"}},{"base_weights":[-1.0482699E1,-2.3977065E3,1.9505759E3,-4.68752E3,-1.6748413E3,7.187162E2,3.654645E3,-3.341557E2,-1.8564563E2,-1.15440506E2,-4.516528E1,9.822715E0,6.3815716E1,1.3904375E2,2.383333E2],"categories":[],"categories_nodes":[],"categories_segments":[],"categories_sizes":[],"default_left":[0,0,0,0,0,0,0,0,0,0,0,0,0,0,0],"id":16,"left_children":[1,3,5,7,9,11,13,-1,-1,-1,-1,-1,-1,-1,-1],"loss_changes":[7.162628E8,1.0635981E8,1.7370397E8,6.304896E6,2.432744E7,1.4309872E7,2.0752288E7,0E0,0E0,0E0,0E0,0E0,0E0,0E0,0E0],"parents":[2147483647,0,0,1,1,2,2,3,3,4,4,5,5,6,6],"right_children":[2,4,6,8,10,12,14,-1,-1,-1,-1,-1,-1,-1,-1],"split_conditions":[5.7818765E3,-5.0110056E2,1.1184031E4,-4.6661567E3,3.1202922E3,8.501671E3,1.510648E4,-3.341557E2,-1.8564563E2,-1.15440506E2,-4.516528E1,9.822715E0,6.3815716E1,1.3904375E2,2.383333E2],"split_indices":[1,1,1,1,1,1,1,0,0,0,0,0,0,0,0],"split_type":[0,0,0,0,0,0,0,0,0,0,0,0,0,0,0],"sum_hessian":[1.51E2,6.8E1,8.3E1,1.5E1,5.3E1,4.9E1,3.4E1,3E0,1.2E1,2.8E1,2.5E1,2.6E1,2.3E1,2.1E1,1.3E1],"tree_param":{"num_deleted":"0","num_feature":"8","num_nodes":"15","size_leaf_vector":"1"}},{"base_weights":[-1.1467752E1,-2.3495479E3,1.8101932E3,-4.580543E3,-1.6738031E3,6.22061E2,3.4430974E3,-3.2162485E2,-1.7907567E2,-1.11308525E2,-4.568011E1,3.7641447E0,5.526489E1,1.13439354E2,2.0869266E2],"categories":[],"categories_nodes":[],"categories_segments":[],"categories_sizes":[],"default_left":[0,0,0,0,0,0,0,0,0,0,0,0,0,0,0],"id":17,"left_children":[1,3,5,7,9,11,13,-1,-1,-1,-1,-1,-1,-1,-1],"loss_changes":[6.516499E8,9.334118E7,1.6470726E8,4.71424E6,2.0221408E7,1.3392174E7,2.1423232E7,0E0,0E0,0E0,0E0,0E0,0E0,0E0,0E0],"parents":[2147483647,0,0,1,1,2,2,3,3,4,4,5,5,6,6],"right_children":[2,4,6,8,10,12,14,-1,-1,-1,-1,-1,-1,-1,-1],"split_conditions":[5.4431787E3,-6.63621E2,1.0611374E4,-4.6661567E3,3.1202922E3,7.8246064E3,1.4012153E4,-3.2162485E2,-1.7907567E2,-1.11308525E2,-4.568011E1,3.7641447E0,5.526489E1,1.13439354E2,2.0869266E2],"split_indices":[1,1,1,1,1,1,1,0,0,0,0,0,0,0,0],"split_type":[0,0,0,0,0,0,0,0,0,0,0,0,0,0,0],"sum_hessian":[1.51E2,6.6E1,8.5E1,1.4E1,5.2E1,5E1,3.5E1,3E0,1.1E1,2.9E1,2.3E1,2.4E1,2.6E1,1.5E1,2E1],"tree_param":{"num_deleted":"0","num_feature":"8","num_nodes":"15","size_leaf_vector":"1"}},{"base_weights":[-1.2713539E1,-2.2418867E3,1.7241157E3,-4.384896E3,-1.593075E3,6.687897E2,3.398767E3,-3.0956393E2,-1.7086803E2,-1.05928604E2,-4.349127E1,1.0814184E1,6.585745E1,1.3590434E2,2.3462614E2],"categories":[],"categories_nodes":[],"categories_segments":[],"categories_sizes":[],"default_left":[0,0,0,0,0,0,0,0,0,0,0,0,0,0,0],"id":18,"left_children":[1,3,5,7,9,11,13,-1,-1,-1,-1,-1,-1,-1,-1],"loss_changes":[5.923626E8,8.617194E7,1.4971499E8,5.058272E6,1.8300688E7,1.5557992E7,1.6306272E7,0E0,0E0,0E0,0E0,0E0,0E0,0E0,0E0],"parents":[2147483647,0,0,1,1,2,2,3,3,4,4,5,5,6,6],"right_children":[2,4,6,8,10,12,14,-1,-1,-1,-1,-1,-1,-1,-1],"split_conditions":[5.4431787E3,-6.63621E2,1.1628665E4,-4.6661567E3,3.1202922E3,8.782615E3,1.653039E4,-3.0956393E2,-1.7086803E2,-1.05928604E2,-4.349127E1,1.0814184E1,6.585745E1,1.3590434E2,2.3462614E2],"split_indices":[1,1,1,1,1,1,1,0,0,0,0,0,0,0,0],"split_type":[0,0,0,0,0,0,0,0,0,0,0,0,0,0,0],"sum_hessian":[1.51E2,6.6E1,8.5E1,1.4E1,5.2E1,5.3E1,3.2E1,3E0,1.1E1,2.9E1,2.3E1,3.2E1,2.1E1,2.3E1,9E0],"tree_param":{"num_deleted":"0","num_feature":"8","num_nodes":"15","size_leaf_vector":"1"}},{"base_weights":[-1.3279431E1,-1.7611023E3,2.0055199E3,-3.4937656E3,-9.3986816E2,1.1094556E3,3.6099001E3,-2.979553E2,-1.456554E2,-8.011324E1,-2.047858E1,2.9992847E1,8.3063934E1,1.4613246E2,2.3524889E2],"categories":[],"categories_nodes":[],"categories_segments":[],"categories_sizes":[],"default_left":[0,0,0,0,0,0,0,0,0,0,0,0,0,0,0],"id":19,"left_children":[1,3,5,7,9,11,13,-1,-1,-1,-1,-1,-1,-1,-1],"loss_changes":[5.398645E8,1.1339594E8,9.806656E7,1.9859968E7,1.936596E7,1.2220256E7,5.06384E6,0E0,0E0,0E0,0E0,0E0,0E0,0E0,0E0],"parents":[2147483647,0,0,1,1,2,2,3,3,4,4,5,5,6,6],"right_children":[2,4,6,8,10,12,14,-1,-1,-1,-1,-1,-1,-1,-1],"split_conditions":[6.6137905E3,8.068365E2,1.2773701E4,-4.6661567E3,3.8418792E3,9.289091E3,1.6767346E4,-2.979553E2,-1.456554E2,-8.011324E1,-2.047858E1,2.9992847E1,8.3063934E1,1.4613246E2,2.3524889E2],"split_indices":[1,1,1,1,1,1,1,0,0,0,0,0,0,0,0],"split_type":[0,0,0,0,0,0,0,0,0,0,0,0,0,0,0],"sum_hessian":[1.51E2,8.1E1,7E1,2.5E1,5.6E1,4.6E1,2.4E1,3E0,2.2E1,2.4E1,3.2E1,2.5E1,2.1E1,1.7E1,7E0],"tree_param":{"num_deleted":"0","num_feature":"8","num_nodes":"15","size_leaf_vector":"1"}},{"base_weights":[-1.2942841E1,-2.0441313E3,1.5696453E3,-4.031275E3,-1.4431637E3,5.118884E2,2.9566235E3,-2.8678195E2,-1.563607E2,-9.675914E1,-4.0734756E1,3.138882E0,4.6201885E1,1.1515969E2,2.0630013E2],"categories":[],"categories_nodes":[],"categories_segments":[],"categories_sizes":[],"default_left":[0,0,0,0,0,0,0,0,0,0,0,0,0,0,0],"id":20,"left_children":[1,3,5,7,9,11,13,-1,-1,-1,-1,-1,-1,-1,-1],"loss_changes":[4.9181782E8,7.419421E7,1.246559E8,5.17616E6,1.4812E7,9.197025E6,1.8768992E7,0E0,0E0,0E0,0E0,0E0,0E0,0E0,0E0],"parents":[2147483647,0,0,1,1,2,2,3,3,4,4,5,5,6,6],"right_children":[2,4,6,8,10,12,14,-1,-1,-1,-1,-1,-1,-1,-1],"split_conditions":[5.4431787E3,-6.63621E2,1.05444E4,-4.6661567E3,2.8697278E3,7.8246064E3,1.5891141E4,-2.8678195E2,-1.563607E2,-9.675914E1,-4.0734756E1,3.138882E0,4.6201885E1,1.1515969E2,2.0630013E2],"split_indices":[1,1,1,1,1,1,1,0,0,0,0,0,0,0,0],"split_type":[0,0,0,0,0,0,0,0,0,0,0,0,0,0,0],"sum_hessian":[1.51E2,6.6E1,8.5E1,1.4E1,5.2E1,4.9E1,3.6E1,3E0,1.1E1,2.8E1,2.4E1,2.4E1,2.5E1,2.5E1,1.1E1],"tree_param":{"num_deleted":"0","num_feature":"8","num_nodes":"15","size_leaf_vector":"1"}},{"base_weights":[-1.3676235E1,-1.8513431E3,1.5776412E3,-3.5196152E3,-1.1740974E3,7.8872437E2,3.2465112E3,-2.7602762E2,-1.4208852E2,-8.2698135E1,-3.1530905E1,1.5319397E1,6.969297E1,1.3547789E2,2.2923819E2],"categories":[],"categories_nodes":[],"categories_segments":[],"categories_sizes":[],"default_left":[0,0,0,0,0,0,0,0,0,0,0,0,0,0,0],"id":21,"left_children":[1,3,5,7,9,11,13,-1,-1,-1,-1,-1,-1,-1,-1],"loss_changes":[4.4741613E8,7.608558E7,1.0540058E8,1.1438368E7,1.2518416E7,1.6210024E7,6.260384E6,0E0,0E0,0E0,0E0,0E0,0E0,0E0,0E0],"parents":[2147483647,0,0,1,1,2,2,3,3,4,4,5,5,6,6],"right_children":[2,4,6,8,10,12,14,-1,-1,-1,-1,-1,-1,-1,-1],"split_conditions":[5.9831733E3,1.869863E2,1.252579E4,-4.6661567E3,3.3180823E3,9.0639375E3,1.6901742E4,-2.7602762E2,-1.4208852E2,-8.2698135E1,-3.1530905E1,1.5319397E1,6.969297E1,1.3547789E2,2.2923819E2],"split_indices":[1,1,1,1,1,1,1,0,0,0,0,0,0,0,0],"split_type":[0,0,0,0,0,0,0,0,0,0,0,0,0,0,0],"sum_hessian":[1.51E2,7E1,8.1E1,1.9E1,5.1E1,5.6E1,2.5E1,3E0,1.6E1,2.6E1,2.5E1,3.2E1,2.4E1,2E1,5E0],"tree_param":{"num_deleted":"0","num_feature":"8","num_nodes":"15","size_leaf_vector":"1"}},{"base_weights":[-1.353597E1,-1.9130364E3,1.3896578E3,-3.7850146E3,-1.3722529E3,5.8094147E2,2.9338115E3,-2.656766E2,-1.4425491E2,-9.170593E1,-4.1992218E1,6.2656627E0,5.5815205E1,1.19309814E2,2.0707396E2],"categories":[],"categories_nodes":[],"categories_segments":[],"categories_sizes":[],"default_left":[0,0,0,0,0,0,0,0,0,0,0,0,0,0,0],"id":22,"left_children":[1,3,5,7,9,11,13,-1,-1,-1,-1,-1,-1,-1,-1],"loss_changes":[4.077943E8,6.060779E7,1.0818848E8,3.927472E6,1.1246488E7,1.4251762E7,9.957744E6,0E0,0E0,0E0,0E0,0E0,0E0,0E0,0E0],"parents":[2147483647,0,0,1,1,2,2,3,3,4,4,5,5,6,6],"right_children":[2,4,6,8,10,12,14,-1,-1,-1,-1,-1,-1,-1,-1],"split_conditions":[5.367995E3,-7.8701495E2,1.1952182E4,-4.6661567E3,2.3985828E3,8.611916E3,1.6767346E4,-2.656766E2,-1.4425491E2,-9.170593E1,-4.1992218E1,6.2656627E0,5.5815205E1,1.19309814E2,2.0707396E2],"split_indices":[1,1,1,1,1,1,1,0,0,0,0,0,0,0,0],"split_type":[0,0,0,0,0,0,0,0,0,0,0,0,0,0,0],"sum_hessian":[1.51E2,6.4E1,8.7E1,1.3E1,5.1E1,5.8E1,2.9E1,3E0,1E1,2.6E1,2.5E1,3.2E1,2.6E1,2.2E1,7E0],"tree_param":{"num_deleted":"0","num_feature":"8","num_nodes":"15","size_leaf_vector":"1"}},{"base_weights":[-1.3880016E1,-1.4455731E3,1.6838972E3,-3.120166E3,-8.28047E2,9.948549E2,3.1420415E3,-2.5571373E2,-1.26806725E2,-6.598514E1,-1.2981209E1,3.0032883E1,7.9282906E1,1.3084117E2,2.2022095E2],"categories":[],"categories_nodes":[],"categories_segments":[],"categories_sizes":[],"default_left":[0,0,0,0,0,0,0,0,0,0,0,0,0,0,0],"id":23,"left_children":[1,3,5,7,9,11,13,-1,-1,-1,-1,-1,-1,-1,-1],"loss_changes":[3.719E8,8.324704E7,6.720474E7,1.26512E7,1.6984412E7,1.0459316E7,3.060912E6,0E0,0E0,0E0,0E0,0E0,0E0,0E0,0E0],"parents":[2147483647,0,0,1,1,2,2,3,3,4,4,5,5,6,6],"right_children":[2,4,6,8,10,12,14,-1,-1,-1,-1,-1,-1,-1,-1],"split_conditions":[6.8589233E3,3.846623E2,1.3529249E4,-4.6661567E3,4.184894E3,1.0123537E4,1.7724633E4,-2.5571373E2,-1.26806725E2,-6.598514E1,-1.2981209E1,3.0032883E1,7.9282906E1,1.3084117E2,2.2022095E2],"split_indices":[1,1,1,1,1,1,1,0,0,0,0,0,0,0,0],"split_type":[0,0,0,0,0,0,0,0,0,0,0,0,0,0,0],"sum_hessian":[1.51E2,8.2E1,6.9E1,2.1E1,6.1E1,4.8E1,2.1E1,3E0,1.8E1,3.2E1,2.9E1,3E1,1.8E1,1.7E1,4E0],"tree_param":{"num_deleted":"0","num_feature":"8","num_nodes":"15","size_leaf_vector":"1"}},{"base_weights":[-1.31932535E1,-1.2924908E3,1.7189819E3,-2.6525034E3,-5.790525E2,1.0389565E3,3.0008972E3,-2.0669676E2,-1.0109484E2,-4.8466393E1,-2.321059E0,3.271862E1,7.552738E1,1.24662575E2,2.1141211E2],"categories":[],"categories_nodes":[],"categories_segments":[],"categories_sizes":[],"default_left":[0,0,0,0,0,0,0,0,0,0,0,0,0,0,0],"id":24,"left_children":[1,3,5,7,9,11,13,-1,-1,-1,-1,-1,-1,-1,-1],"loss_changes":[3.3904883E8,8.384915E7,5.3544976E7,1.9667632E7,1.22195E7,6.991668E6,3.165168E6,0E0,0E0,0E0,0E0,0E0,0E0,0E0,0E0],"parents":[2147483647,0,0,1,1,2,2,3,3,4,4,5,5,6,6],"right_children":[2,4,6,8,10,12,14,-1,-1,-1,-1,-1,-1,-1,-1],"split_conditions":[7.4155527E3,1.394265E3,1.3529249E4,-2.0669556E3,5.0239795E3,1.0123537E4,1.7724633E4,-2.0669676E2,-1.0109484E2,-4.8466393E1,-2.321059E0,3.271862E1,7.552738E1,1.24662575E2,2.1141211E2],"split_indices":[1,1,1,1,1,1,1,0,0,0,0,0,0,0,0],"split_type":[0,0,0,0,0,0,0,0,0,0,0,0,0,0,0],"sum_hessian":[1.51E2,8.7E1,6.4E1,2.9E1,5.8E1,4.3E1,2.1E1,7E0,2.2E1,3.3E1,2.5E1,2.5E1,1.8E1,1.7E1,4E0],"tree_param":{"num_deleted":"0","num_feature":"8","num_nodes":"15","size_leaf_vector":"1"}},{"base_weights":[-1.1969456E1,-1.231941E3,1.6398687E3,-2.6377847E3,-5.9984894E2,9.894688E2,2.8661287E3,-2.245501E2,-1.06011246E2,-5.3831264E1,-7.4119315E0,3.1145603E1,7.1949776E1,1.1877576E2,2.0295563E2],"categories":[],"categories_nodes":[],"categories_segments":[],"categories_sizes":[],"default_left":[0,0,0,0,0,0,0,0,0,0,0,0,0,0,0],"id":25,"left_children":[1,3,5,7,9,11,13,-1,-1,-1,-1,-1,-1,-1,-1],"loss_changes":[3.0832992E8,7.661652E7,4.900541E7,1.6375136E7,1.3190062E7,6.35382E6,3.233984E6,0E0,0E0,0E0,0E0,0E0,0E0,0E0,0E0],"parents":[2147483647,0,0,1,1,2,2,3,3,4,4,5,5,6,6],"right_children":[2,4,6,8,10,12,14,-1,-1,-1,-1,-1,-1,-1,-1],"split_conditions":[7.4155527E3,1.1223007E3,1.3529249E4,-3.9453616E3,4.5656055E3,1.0123537E4,1.7724633E4,-2.245501E2,-1.06011246E2,-5.3831264E1,-7.4119315E0,3.1145603E1,7.1949776E1,1.1877576E2,2.0295563E2],"split_indices":[1,1,1,1,1,1,1,0,0,0,0,0,0,0,0],"split_type":[0,0,0,0,0,0,0,0,0,0,0,0,0,0,0],"sum_hessian":[1.51E2,8.7E1,6.4E1,2.6E1,6.1E1,4.3E1,2.1E1,4E0,2.2E1,2.9E1,3.2E1,2.5E1,1.8E1,1.7E1,4E0],"tree_param":{"num_deleted":"0","num_feature":"8","num_nodes":"15","size_leaf_vector":"1"}},{"base_weights":[-1.1153711E1,-1.4119602E3,1.3011354E3,-3.0578875E3,-9.416756E2,6.767088E2,2.6228284E3,-2.2995268E2,-1.1742301E2,-6.881063E1,-2.2234947E1,1.3624486E1,5.585441E1,1.0973089E2,1.9483739E2],"categories":[],"categories_nodes":[],"categories_segments":[],"categories_sizes":[],"default_left":[0,0,0,0,0,0,0,0,0,0,0,0,0,0,0],"id":26,"left_children":[1,3,5,7,9,11,13,-1,-1,-1,-1,-1,-1,-1,-1],"loss_changes":[2.8125315E8,5.4400464E7,6.342383E7,6.692832E6,1.2129332E7,9.486138E6,5.085776E6,0E0,0E0,0E0,0E0,0E0,0E0,0E0,0E0],"parents":[2147483647,0,0,1,1,2,2,3,3,4,4,5,5,6,6],"right_children":[2,4,6,8,10,12,14,-1,-1,-1,-1,-1,-1,-1,-1],"split_conditions":[6.1816724E3,-5.0110056E2,1.2773701E4,-4.6661567E3,3.3180823E3,9.0639375E3,1.7724633E4,-2.2995268E2,-1.1742301E2,-6.881063E1,-2.2234947E1,1.3624486E1,5.585441E1,1.0973089E2,1.9483739E2],"split_indices":[1,1,1,1,1,1,1,0,0,0,0,0,0,0,0],"split_type":[0,0,0,0,0,0,0,0,0,0,0,0,0,0,0],"sum_hessian":[1.51E2,7.3E1,7.8E1,1.5E1,5.8E1,5.4E1,2.4E1,3E0,1.2E1,3E1,2.8E1,2.9E1,2.5E1,2E1,4E0],"tree_param":{"num_deleted":"0","num_feature":"8","num_nodes":"15","size_leaf_vector":"1"}},{"base_weights":[-1.1019512E1,-1.5177026E3,1.1019967E3,-3.1427104E3,-1.09048E3,3.415972E2,2.1408826E3,-2.2132947E2,-1.157444E2,-7.314032E1,-3.2378574E1,1.0362696E-1,3.1627216E1,8.577352E1,1.6368896E2],"categories":[],"categories_nodes":[],"categories_segments":[],"categories_sizes":[],"default_left":[0,0,0,0,0,0,0,0,0,0,0,0,0,0,0],"id":27,"left_children":[1,3,5,7,9,11,13,-1,-1,-1,-1,-1,-1,-1,-1],"loss_changes":[2.5657085E8,4.1698544E7,6.878589E7,3.569664E6,7.79278E6,5.135442E6,1.2216E7,0E0,0E0,0E0,0E0,0E0,0E0,0E0,0E0],"parents":[2147483647,0,0,1,1,2,2,3,3,4,4,5,5,6,6],"right_children":[2,4,6,8,10,12,14,-1,-1,-1,-1,-1,-1,-1,-1],"split_conditions":[5.367995E3,-9.270874E2,1.05444E4,-4.6661567E3,2.3985828E3,7.542957E3,1.6745398E4,-2.2132947E2,-1.157444E2,-7.314032E1,-3.2378574E1,1.0362696E-1,3.1627216E1,8.577352E1,1.6368896E2],"split_indices":[1,1,1,1,1,1,1,0,0,0,0,0,0,0,0],"split_type":[0,0,0,0,0,0,0,0,0,0,0,0,0,0,0],"sum_hessian":[1.51E2,6.4E1,8.7E1,1.2E1,5.2E1,5.1E1,3.6E1,3E0,9E0,2.7E1,2.5E1,2.4E1,2.7E1,2.8E1,8E0],"tree_param":{"num_deleted":"0","num_feature":"8","num_nodes":"15","size_leaf_vector":"1"}},{"base_weights":[-1.1530304E1,-1.4486267E3,1.0500923E3,-3.1854966E3,-1.0749141E3,4.4770038E2,2.2602104E3,-2.1302962E2,-1.1248809E2,-7.416306E1,-3.2883137E1,5.59362E0,4.4127865E1,9.499294E1,1.8049637E2],"categories":[],"categories_nodes":[],"categories_segments":[],"categories_sizes":[],"default_left":[0,0,0,0,0,0,0,0,0,0,0,0,0,0,0],"id":28,"left_children":[1,3,5,7,9,11,13,-1,-1,-1,-1,-1,-1,-1,-1],"loss_changes":[2.3342059E8,3.8766736E7,6.313708E7,1.480728E6,8.3956E6,8.66349E6,7.246448E6,0E0,0E0,0E0,0E0,0E0,0E0,0E0,0E0],"parents":[2147483647,0,0,1,1,2,2,3,3,4,4,5,5,6,6],"right_children":[2,4,6,8,10,12,14,-1,-1,-1,-1,-1,-1,-1,-1],"split_conditions":[5.367995E3,-1.1149225E3,1.2254457E4,-4.6661567E3,2.1073599E3,8.782615E3,1.7724633E4,-2.1302962E2,-1.1248809E2,-7.416306E1,-3.2883137E1,5.59362E0,4.4127865E1,9.499294E1,1.8049637E2],"split_indices":[1,1,1,1,1,1,1,0,0,0,0,0,0,0,0],"split_type":[0,0,0,0,0,0,0,0,0,0,0,0,0,0,0],"sum_hessian":[1.51E2,6.4E1,8.7E1,1E1,5.4E1,5.9E1,2.8E1,3E0,7E0,2.6E1,2.8E1,3.4E1,2.5E1,2.4E1,4E0],"tree_param":{"num_deleted":"0","num_feature":"8","num_nodes":"15","size_leaf_vector":"1"}},{"base_weights":[-1.1660107E1,-1.1986285E3,1.1600446E3,-2.4935369E3,-7.232462E2,6.043474E2,2.2917207E3,-2.05041E2,-9.84337E1,-5.3811012E1,-1.5961479E1,1.5039233E1,5.0921146E1,9.515564E1,1.7327654E2],"categories":[],"categories_nodes":[],"categories_segments":[],"categories_sizes":[],"default_left":[0,0,0,0,0,0,0,0,0,0,0,0,0,0,0],"id":29,"left_children":[1,3,5,7,9,11,13,-1,-1,-1,-1,-1,-1,-1,-1],"loss_changes":[2.1278848E8,4.4980376E7,4.7037936E7,8.798888E6,7.78506E6,6.355662E6,4.808488E6,0E0,0E0,0E0,0E0,0E0,0E0,0E0,0E0],"parents":[2147483647,0,0,1,1,2,2,3,3,4,4,5,5,6,6],"right_children":[2,4,6,8,10,12,14,-1,-1,-1,-1,-1,-1,-1,-1],"split_conditions":[6.314921E3,1.869863E2,1.2773701E4,-4.6661567E3,3.5523218E3,9.289091E3,1.7724633E4,-2.05041E2,-9.84337E1,-5.3811012E1,-1.5961479E1,1.5039233E1,5.0921146E1,9.515564E1,1.7327654E2],"split_indices":[1,1,1,1,1,1,1,0,0,0,0,0,0,0,0],"split_type":[0,0,0,0,0,0,0,0,0,0,0,0,0,0,0],"sum_hessian":[1.51E2,7.5E1,7.6E1,1.9E1,5.6E1,5.2E1,2.4E1,3E0,1.6E1,2.9E1,2.7E1,3.1E1,2.1E1,2E1,4E0],"tree_param":{"num_deleted":"0","num_feature":"8","num_nodes":"15","size_leaf_vector":"1"}},{"base_weights":[-1.133261E1,-9.920678E2,1.2816265E3,-2.300712E3,-5.408218E2,7.74045E2,2.3324417E3,-1.9735196E2,-9.165133E1,-4.905206E1,-9.531637E0,2.3671812E1,5.7058228E1,9.5137436E1,1.6634547E2],"categories":[],"categories_nodes":[],"categories_segments":[],"categories_sizes":[],"default_left":[0,0,0,0,0,0,0,0,0,0,0,0,0,0,0],"id":30,"left_children":[1,3,5,7,9,11,13,-1,-1,-1,-1,-1,-1,-1,-1],"loss_changes":[1.9401514E8,5.0131E7,3.339728E7,9.70416E6,9.98754E6,4.53626E6,2.643368E6,0E0,0E0,0E0,0E0,0E0,0E0,0E0,0E0],"parents":[2147483647,0,0,1,1,2,2,3,3,4,4,5,5,6,6],"right_children":[2,4,6,8,10,12,14,-1,-1,-1,-1,-1,-1,-1,-1],"split_conditions":[7.20221E3,3.846623E2,1.4012153E4,-4.6661567E3,3.8418792E3,1.0123537E4,1.7724633E4,-1.9735196E2,-9.165133E1,-4.905206E1,-9.531637E0,2.3671812E1,5.7058228E1,9.5137436E1,1.6634547E2],"split_indices":[1,1,1,1,1,1,1,0,0,0,0,0,0,0,0],"split_type":[0,0,0,0,0,0,0,0,0,0,0,0,0,0,0],"sum_hessian":[1.51E2,8.6E1,6.5E1,2.1E1,6.5E1,4.5E1,2E1,3E0,1.8E1,2.8E1,3.7E1,2.6E1,1.9E1,1.6E1,4E0],"tree_param":{"num_deleted":"0","num_feature":"8","num_nodes":"15","size_leaf_vector":"1"}},{"base_weights":[-1.0801412E1,-1.2634012E3,9.145371E2,-2.9217766E3,-9.44702E2,4.4059805E2,2.0912395E3,-1.8995128E2,-1.0015475E2,-6.505999E1,-2.839607E1,4.972369E0,4.119603E1,8.6456726E1,1.5969164E2],"categories":[],"categories_nodes":[],"categories_segments":[],"categories_sizes":[],"default_left":[0,0,0,0,0,0,0,0,0,0,0,0,0,0,0],"id":31,"left_children":[1,3,5,7,9,11,13,-1,-1,-1,-1,-1,-1,-1,-1],"loss_changes":[1.7733542E8,3.1593776E7,4.8154904E7,4.49312E5,6.783024E6,8.287389E6,4.458792E6,0E0,0E0,0E0,0E0,0E0,0E0,0E0,0E0],"parents":[2147483647,0,0,1,1,2,2,3,3,4,4,5,5,6,6],"right_children":[2,4,6,8,10,12,14,-1,-1,-1,-1,-1,-1,-1,-1],"split_conditions":[5.367995E3,-1.6007434E3,1.2773701E4,-4.6661567E3,2.1073599E3,8.782615E3,1.7724633E4,-1.8995128E2,-1.0015475E2,-6.505999E1,-2.839607E1,4.972369E0,4.119603E1,8.6456726E1,1.5969164E2],"split_indices":[1,1,1,1,1,1,1,0,0,0,0,0,0,0,0],"split_type":[0,0,0,0,0,0,0,0,0,0,0,0,0,0,0],"sum_hessian":[1.51E2,6.4E1,8.7E1,9E0,5.5E1,6.3E1,2.4E1,3E0,6E0,2.7E1,2.8E1,3.4E1,2.9E1,2E1,4E0],"tree_param":{"num_deleted":"0","num_feature":"8","num_nodes":"15","size_leaf_vector":"1"}},{"base_weights":[-1.0861696E1,-1.144562E3,9.205214E2,-2.4984792E3,-7.856441E2,4.947634E2,2.0978958E3,-1.8282808E2,-9.251119E1,-5.5015297E1,-2.158428E1,8.231254E0,4.380727E1,8.562029E1,1.5330399E2],"categories":[],"categories_nodes":[],"categories_segments":[],"categories_sizes":[],"default_left":[0,0,0,0,0,0,0,0,0,0,0,0,0,0,0],"id":32,"left_children":[1,3,5,7,9,11,13,-1,-1,-1,-1,-1,-1,-1,-1],"loss_changes":[1.615518E8,3.1567304E7,4.1069264E7,3.744808E6,5.762136E6,7.788021E6,2.960584E6,0E0,0E0,0E0,0E0,0E0,0E0,0E0,0E0],"parents":[2147483647,0,0,1,1,2,2,3,3,4,4,5,5,6,6],"right_children":[2,4,6,8,10,12,14,-1,-1,-1,-1,-1,-1,-1,-1],"split_conditions":[5.7818765E3,-7.8701495E2,1.3529249E4,-4.6661567E3,2.4649436E3,9.0639375E3,1.7724633E4,-1.8282808E2,-9.251119E1,-5.5015297E1,-2.158428E1,8.231254E0,4.380727E1,8.562029E1,1.5330399E2],"split_indices":[1,1,1,1,1,1,1,0,0,0,0,0,0,0,0],"split_type":[0,0,0,0,0,0,0,0,0,0,0,0,0,0,0],"sum_hessian":[1.51E2,6.8E1,8.3E1,1.3E1,5.5E1,6.2E1,2.1E1,3E0,1E1,2.8E1,2.7E1,3.4E1,2.8E1,1.7E1,4E0],"tree_param":{"num_deleted":"0","num_feature":"8","num_nodes":"15","size_leaf_vector":"1"}},{"base_weights":[-1.0719812E1,-8.43014E2,1.1468567E3,-2.0612324E3,-4.6003424E2,7.105689E2,2.0711616E3,-1.7597203E2,-8.113366E1,-4.0223072E1,-5.123161E0,2.1418219E1,5.0634502E1,8.34564E1,1.4717184E2],"categories":[],"categories_nodes":[],"categories_segments":[],"categories_sizes":[],"default_left":[0,0,0,0,0,0,0,0,0,0,0,0,0,0,0],"id":33,"left_children":[1,3,5,7,9,11,13,-1,-1,-1,-1,-1,-1,-1,-1],"loss_changes":[1.4741034E8,4.0574976E7,2.433712E7,7.718816E6,8.415417E6,3.402898E6,2.100704E6,0E0,0E0,0E0,0E0,0E0,0E0,0E0,0E0],"parents":[2147483647,0,0,1,1,2,2,3,3,4,4,5,5,6,6],"right_children":[2,4,6,8,10,12,14,-1,-1,-1,-1,-1,-1,-1,-1],"split_conditions":[7.542957E3,2.5027446E2,1.4165957E4,-4.6661567E3,4.249653E3,1.0123537E4,1.7724633E4,-1.7597203E2,-8.113366E1,-4.0223072E1,-5.123161E0,2.1418219E1,5.0634502E1,8.34564E1,1.4717184E2],"split_indices":[1,1,1,1,1,1,1,0,0,0,0,0,0,0,0],"split_type":[0,0,0,0,0,0,0,0,0,0,0,0,0,0,0],"sum_hessian":[1.51E2,8.8E1,6.3E1,2E1,6.8E1,4.4E1,1.9E1,3E0,1.7E1,3.4E1,3.4E1,2.4E1,2E1,1.5E1,4E0],"tree_param":{"num_deleted":"0","num_feature":"8","num_nodes":"15","size_leaf_vector":"1"}},{"base_weights":[-1.0182307E1,-9.175685E2,9.5865137E2,-2.2975613E3,-6.1094025E2,5.433406E2,1.9155978E3,-1.6937308E2,-8.461824E1,-4.887209E1,-1.3918556E1,1.5862434E1,4.656144E1,7.955029E1,1.4892549E2],"categories":[],"categories_nodes":[],"categories_segments":[],"categories_sizes":[],"default_left":[0,0,0,0,0,0,0,0,0,0,0,0,0,0,0],"id":34,"left_children":[1,3,5,7,9,11,13,-1,-1,-1,-1,-1,-1,-1,-1],"loss_changes":[1.3450379E8,3.2024768E7,2.8369016E7,3.501632E6,7.772456E6,4.352584E6,2.85144E6,0E0,0E0,0E0,0E0,0E0,0E0,0E0,0E0],"parents":[2147483647,0,0,1,1,2,2,3,3,4,4,5,5,6,6],"right_children":[2,4,6,8,10,12,14,-1,-1,-1,-1,-1,-1,-1,-1],"split_conditions":[6.5196323E3,-7.8701495E2,1.3529249E4,-4.6661567E3,3.1202922E3,1.0123537E4,1.82827E4,-1.6937308E2,-8.461824E1,-4.887209E1,-1.3918556E1,1.5862434E1,4.656144E1,7.955029E1,1.4892549E2],"split_indices":[1,1,1,1,1,1,1,0,0,0,0,0,0,0,0],"split_type":[0,0,0,0,0,0,0,0,0,0,0,0,0,0,0],"sum_hessian":[1.51E2,7.8E1,7.3E1,1.3E1,6.5E1,5.2E1,2.1E1,3E0,1E1,3E1,3.5E1,3.4E1,1.8E1,1.8E1,3E0],"tree_param":{"num_deleted":"0","num_feature":"8","num_nodes":"15","size_leaf_vector":"1"}},{"base_weights":[-9.843472E0,-1.0530671E3,7.608313E2,-2.4912883E3,-7.7743713E2,3.0985294E2,1.6223944E3,-1.6302159E2,-8.4793976E1,-5.5543568E1,-2.4632338E1,2.9327729E0,2.9293478E1,6.467493E1,1.25913345E2],"categories":[],"categories_nodes":[],"categories_segments":[],"categories_sizes":[],"default_left":[0,0,0,0,0,0,0,0,0,0,0,0,0,0,0],"id":35,"left_children":[1,3,5,7,9,11,13,-1,-1,-1,-1,-1,-1,-1,-1],"loss_changes":[1.2300711E8,2.3830272E7,3.3689372E7,5.88532E5,4.770432E6,4.056382E6,5.58208E6,0E0,0E0,0E0,0E0,0E0,0E0,0E0,0E0],"parents":[2147483647,0,0,1,1,2,2,3,3,4,4,5,5,6,6],"right_children":[2,4,6,8,10,12,14,-1,-1,-1,-1,-1,-1,-1,-1],"split_conditions":[5.367995E3,-1.6007434E3,1.1952182E4,-4.6661567E3,1.8155186E3,8.609361E3,1.6854688E4,-1.6302159E2,-8.4793976E1,-5.5543568E1,-2.4632338E1,2.9327729E0,2.9293478E1,6.467493E1,1.25913345E2],"split_indices":[1,1,1,1,1,1,1,0,0,0,0,0,0,0,0],"split_type":[0,0,0,0,0,0,0,0,0,0,0,0,0,0,0],"sum_hessian":[1.51E2,6.4E1,8.7E1,9E0,5.5E1,5.8E1,2.9E1,3E0,6E0,2.4E1,3.1E1,3.1E1,2.7E1,2.3E1,6E0],"tree_param":{"num_deleted":"0","num_feature":"8","num_nodes":"15","size_leaf_vector":"1"}},{"base_weights":[-1.0043281E1,-1.00545984E3,7.253217E2,-2.3915054E3,-7.39997E2,3.460484E2,1.6672484E3,-1.5690828E2,-8.115995E1,-5.287748E1,-2.3439209E1,3.9408386E0,3.231419E1,6.9526566E1,1.3861903E2],"categories":[],"categories_nodes":[],"categories_segments":[],"categories_sizes":[],"default_left":[0,0,0,0,0,0,0,0,0,0,0,0,0,0,0],"id":36,"left_children":[1,3,5,7,9,11,13,-1,-1,-1,-1,-1,-1,-1,-1],"loss_changes":[1.1199245E8,2.214662E7,3.0860844E7,6.42772E5,4.327198E6,5.0839345E6,3.790144E6,0E0,0E0,0E0,0E0,0E0,0E0,0E0,0E0],"parents":[2147483647,0,0,1,1,2,2,3,3,4,4,5,5,6,6],"right_children":[2,4,6,8,10,12,14,-1,-1,-1,-1,-1,-1,-1,-1],"split_conditions":[5.367995E3,-1.6007434E3,1.2773701E4,-4.6661567E3,1.8155186E3,8.782615E3,1.82827E4,-1.5690828E2,-8.115995E1,-5.287748E1,-2.3439209E1,3.9408386E0,3.231419E1,6.9526566E1,1.3861903E2],"split_indices":[1,1,1,1,1,1,1,0,0,0,0,0,0,0,0],"split_type":[0,0,0,0,0,0,0,0,0,0,0,0,0,0,0],"sum_hessian":[1.51E2,6.4E1,8.7E1,9E0,5.5E1,6.3E1,2.4E1,3E0,6E0,2.4E1,3.1E1,3.4E1,2.9E1,2.1E1,3E0],"tree_param":{"num_deleted":"0","num_feature":"8","num_nodes":"15","size_leaf_vector":"1"}},{"base_weights":[-1.0001578E1,-7.5054663E2,8.916765E2,-1.9320162E3,-4.657052E2,5.357417E2,1.7369297E3,-1.5102422E2,-7.242432E1,-3.8665977E1,-8.112216E0,1.5504227E1,4.162988E1,7.257996E1,1.4349678E2],"categories":[],"categories_nodes":[],"categories_segments":[],"categories_sizes":[],"default_left":[0,0,0,0,0,0,0,0,0,0,0,0,0,0,0],"id":37,"left_children":[1,3,5,7,9,11,13,-1,-1,-1,-1,-1,-1,-1,-1],"loss_changes":[1.02164696E8,2.7368896E7,1.9828448E7,4.04578E6,6.315608E6,3.091207E6,2.299632E6,0E0,0E0,0E0,0E0,0E0,0E0,0E0,0E0],"parents":[2147483647,0,0,1,1,2,2,3,3,4,4,5,5,6,6],"right_children":[2,4,6,8,10,12,14,-1,-1,-1,-1,-1,-1,-1,-1],"split_conditions":[6.980969E3,-5.0110056E2,1.4165957E4,-4.6661567E3,3.5523218E3,1.0123537E4,2.0448256E4,-1.5102422E2,-7.242432E1,-3.8665977E1,-8.112216E0,1.5504227E1,4.162988E1,7.257996E1,1.4349678E2],"split_indices":[1,1,1,1,1,1,1,0,0,0,0,0,0,0,0],"split_type":[0,0,0,0,0,0,0,0,0,0,0,0,0,0,0],"sum_hessian":[1.51E2,8.3E1,6.8E1,1.5E1,6.8E1,4.9E1,1.9E1,3E0,1.2E1,3.3E1,3.5E1,2.9E1,2E1,1.7E1,2E0],"tree_param":{"num_deleted":"0","num_feature":"8","num_nodes":"15","size_leaf_vector":"1"}},{"base_weights":[-9.481829E0,-8.941983E2,6.798843E2,-1.1944295E2,-6.800069E2,3.5696344E2,1.6030646E3,-5.0573326E1,-2.071755E1,6.964093E0,3.498414E1,6.736153E1,1.3871355E2],"categories":[],"categories_nodes":[],"categories_segments":[],"categories_sizes":[],"default_left":[0,0,0,0,0,0,0,0,0,0,0,0,0],"id":38,"left_children":[1,3,5,-1,7,9,11,-1,-1,-1,-1,-1,-1],"loss_changes":[9.331176E7,1.9825172E7,2.5065584E7,0E0,4.864148E6,4.751786E6,2.854376E6,0E0,0E0,0E0,0E0,0E0,0E0],"parents":[2147483647,0,0,1,1,2,2,4,4,5,5,6,6],"right_children":[2,4,6,-1,8,10,12,-1,-1,-1,-1,-1,-1],"split_conditions":[5.4431787E3,-2.0669556E3,1.3529249E4,-1.1944295E2,1.7899714E3,9.289091E3,2.0448256E4,-5.0573326E1,-2.071755E1,6.964093E0,3.498414E1,6.736153E1,1.3871355E2],"split_indices":[1,1,1,0,1,1,1,0,0,0,0,0,0],"split_type":[0,0,0,0,0,0,0,0,0,0,0,0,0],"sum_hessian":[1.51E2,6.6E1,8.5E1,7E0,5.9E1,6.4E1,2.1E1,2.5E1,3.4E1,4E1,2.4E1,1.9E1,2E0],"tree_param":{"num_deleted":"0","num_feature":"8","num_nodes":"13","size_leaf_vector":"1"}},{"base_weights":[-8.630755E0,-6.414747E2,8.715527E2,-1.6282003E3,-3.5038916E2,5.542771E2,1.651575E3,-1.408817E2,-6.262785E1,-3.11221E1,-4.546234E0,1.6938824E1,4.024776E1,6.7759254E1,1.3408978E2],"categories":[],"categories_nodes":[],"categories_segments":[],"categories_sizes":[],"default_left":[0,0,0,0,0,0,0,0,0,0,0,0,0,0,0],"id":39,"left_children":[1,3,5,7,9,11,13,-1,-1,-1,-1,-1,-1,-1,-1],"loss_changes":[8.522593E7,2.4992216E7,1.492342E7,5.406804E6,4.884568E6,2.2663E6,1.861916E6,0E0,0E0,0E0,0E0,0E0,0E0,0E0,0E0],"parents":[2147483647,0,0,1,1,2,2,3,3,4,4,5,5,6,6],"right_children":[2,4,6,8,10,12,14,-1,-1,-1,-1,-1,-1,-1,-1],"split_conditions":[7.542957E3,1.869863E2,1.4342923E4,-4.6661567E3,4.0443552E3,1.025649E4,2.0448256E4,-1.408817E2,-6.262785E1,-3.11221E1,-4.546234E0,1.6938824E1,4.024776E1,6.7759254E1,1.3408978E2],"split_indices":[1,1,1,1,1,1,1,0,0,0,0,0,0,0,0],"split_type":[0,0,0,0,0,0,0,0,0,0,0,0,0,0,0],"sum_hessian":[1.51E2,8.8E1,6.3E1,1.9E1,6.9E1,4.6E1,1.7E1,3E0,1.6E1,3.3E1,3.6E1,2.6E1,2E1,1.5E1,2E0],"tree_param":{"num_deleted":"0","num_feature":"8","num_nodes":"15","size_leaf_vector":"1"}},{"base_weights":[-8.068494E0,-8.481895E2,5.961541E2,-1.10010086E2,-6.4355286E2,1.9103474E2,1.2157373E3,-4.5918606E1,-2.0007563E1,2.2811106E-1,1.8534231E1,4.8217678E1,1.0417537E2],"categories":[],"categories_nodes":[],"categories_segments":[],"categories_sizes":[],"default_left":[0,0,0,0,0,0,0,0,0,0,0,0,0],"id":40,"left_children":[1,3,5,-1,7,9,11,-1,-1,-1,-1,-1,-1],"loss_changes":[7.766391E7,1.6291012E7,2.2107206E7,0E0,3.445322E6,1.8407956E6,5.62578E6,0E0,0E0,0E0,0E0,0E0,0E0],"parents":[2147483647,0,0,1,1,2,2,4,4,5,5,6,6],"right_children":[2,4,6,-1,8,10,12,-1,-1,-1,-1,-1,-1],"split_conditions":[5.173106E3,-2.0669556E3,1.1184031E4,-1.10010086E2,1.7899714E3,7.8246064E3,1.6854688E4,-4.5918606E1,-2.0007563E1,2.2811106E-1,1.8534231E1,4.8217678E1,1.0417537E2],"split_indices":[1,1,1,0,1,1,1,0,0,0,0,0,0],"split_type":[0,0,0,0,0,0,0,0,0,0,0,0,0],"sum_hessian":[1.51E2,6.3E1,8.8E1,7E0,5.6E1,5.4E1,3.4E1,2.5E1,3.1E1,2.7E1,2.7E1,2.8E1,6E0],"tree_param":{"num_deleted":"0","num_feature":"8","num_nodes":"13","size_leaf_vector":"1"}},{"base_weights":[-7.696553E0,-6.917447E2,6.675678E2,-1.9472184E3,-4.94036E2,3.8318094E2,1.4589113E3,-1.3147325E2,-6.395946E1,-3.856779E1,-1.1690314E1,1.0409556E1,3.4079124E1,6.0026028E1,1.261476E2],"categories":[],"categories_nodes":[],"categories_segments":[],"categories_sizes":[],"default_left":[0,0,0,0,0,0,0,0,0,0,0,0,0,0,0],"id":41,"left_children":[1,3,5,7,9,11,13,-1,-1,-1,-1,-1,-1,-1,-1],"loss_changes":[7.067261E7,1.7902572E7,1.6769644E7,1.194024E6,4.654831E6,2.886699E6,2.469912E6,0E0,0E0,0E0,0E0,0E0,0E0,0E0,0E0],"parents":[2147483647,0,0,1,1,2,2,3,3,4,4,5,5,6,6],"right_children":[2,4,6,8,10,12,14,-1,-1,-1,-1,-1,-1,-1,-1],"split_conditions":[6.314921E3,-1.6007434E3,1.4165957E4,-4.6661567E3,2.4484E3,1.0123537E4,2.0448256E4,-1.3147325E2,-6.395946E1,-3.856779E1,-1.1690314E1,1.0409556E1,3.4079124E1,6.0026028E1,1.261476E2],"split_indices":[1,1,1,1,1,1,1,0,0,0,0,0,0,0,0],"split_type":[0,0,0,0,0,0,0,0,0,0,0,0,0,0,0],"sum_hessian":[1.51E2,7.5E1,7.6E1,9E0,6.6E1,5.7E1,1.9E1,3E0,6E0,3.1E1,3.5E1,3.7E1,2E1,1.7E1,2E0],"tree_param":{"num_deleted":"0","num_feature":"8","num_nodes":"15","size_leaf_vector":"1"}},{"base_weights":[-7.4105773E0,-5.5837836E2,7.588948E2,-1.6051368E3,-3.415816E2,4.7731107E2,1.4519803E3,-1.2654299E2,-5.8140053E1,-3.0321562E1,-4.7338724E0,1.4709821E1,3.450076E1,5.8809643E1,1.2194264E2],"categories":[],"categories_nodes":[],"categories_segments":[],"categories_sizes":[],"default_left":[0,0,0,0,0,0,0,0,0,0,0,0,0,0,0],"id":42,"left_children":[1,3,5,7,9,11,13,-1,-1,-1,-1,-1,-1,-1,-1],"loss_changes":[6.4599604E7,1.9648828E7,1.1797292E7,3.19932E6,4.847019E6,1.627615E6,2.030448E6,0E0,0E0,0E0,0E0,0E0,0E0,0E0,0E0],"parents":[2147483647,0,0,1,1,2,2,3,3,4,4,5,5,6,6],"right_children":[2,4,6,8,10,12,14,-1,-1,-1,-1,-1,-1,-1,-1],"split_conditions":[7.542957E3,-6.63621E2,1.4342923E4,-4.6661567E3,3.8418792E3,1.025649E4,2.0448256E4,-1.2654299E2,-5.8140053E1,-3.0321562E1,-4.7338724E0,1.4709821E1,3.450076E1,5.8809643E1,1.2194264E2],"split_indices":[1,1,1,1,1,1,1,0,0,0,0,0,0,0,0],"split_type":[0,0,0,0,0,0,0,0,0,0,0,0,0,0,0],"sum_hessian":[1.51E2,8.8E1,6.3E1,1.4E1,7.4E1,4.6E1,1.7E1,3E0,1.1E1,3.5E1,3.9E1,2.6E1,2E1,1.5E1,2E0],"tree_param":{"num_deleted":"0","num_feature":"8","num_nodes":"15","size_leaf_vector":"1"}},{"base_weights":[-6.972851E0,-7.399454E2,5.201869E2,-1.946137E3,-5.576738E2,2.717589E2,1.3116793E3,-1.2179763E2,-5.825285E1,-4.1362278E1,-1.822966E1,3.4757092E0,2.587147E1,5.387525E1,1.1787787E2],"categories":[],"categories_nodes":[],"categories_segments":[],"categories_sizes":[],"default_left":[0,0,0,0,0,0,0,0,0,0,0,0,0,0,0],"id":43,"left_children":[1,3,5,7,9,11,13,-1,-1,-1,-1,-1,-1,-1,-1],"loss_changes":[5.9116736E7,1.2985372E7,1.7143508E7,2.22658E5,2.66519E6,3.392336E6,2.602996E6,0E0,0E0,0E0,0E0,0E0,0E0,0E0,0E0],"parents":[2147483647,0,0,1,1,2,2,3,3,4,4,5,5,6,6],"right_children":[2,4,6,8,10,12,14,-1,-1,-1,-1,-1,-1,-1,-1],"split_conditions":[5.173106E3,-2.0669556E3,1.4012153E4,-4.6661567E3,1.394265E3,9.056926E3,2.0448256E4,-1.2179763E2,-5.825285E1,-4.1362278E1,-1.822966E1,3.4757092E0,2.587147E1,5.387525E1,1.1787787E2],"split_indices":[1,1,1,1,1,1,1,0,0,0,0,0,0,0,0],"split_type":[0,0,0,0,0,0,0,0,0,0,0,0,0,0,0],"sum_hessian":[1.51E2,6.3E1,8.8E1,7E0,5.6E1,6.8E1,2E1,3E0,4E0,2.2E1,3.4E1,3.8E1,3E1,1.8E1,2E0],"tree_param":{"num_deleted":"0","num_feature":"8","num_nodes":"15","size_leaf_vector":"1"}},{"base_weights":[-6.877626E0,-5.592822E2,6.3120764E2,-1.6128828E3,-3.733317E2,3.861113E2,1.3314297E3,-1.17230225E2,-5.54232E1,-3.0433039E1,-7.031654E0,1.1251685E1,3.1425867E1,5.3527554E1,1.1394863E2],"categories":[],"categories_nodes":[],"categories_segments":[],"categories_sizes":[],"default_left":[0,0,0,0,0,0,0,0,0,0,0,0,0,0,0],"id":44,"left_children":[1,3,5,7,9,11,13,-1,-1,-1,-1,-1,-1,-1,-1],"loss_changes":[5.3930176E7,1.5463102E7,1.1671074E7,1.83022E6,3.802415E6,1.9670555E6,2.00973E6,0E0,0E0,0E0,0E0,0E0,0E0,0E0,0E0],"parents":[2147483647,0,0,1,1,2,2,3,3,4,4,5,5,6,6],"right_children":[2,4,6,8,10,12,14,-1,-1,-1,-1,-1,-1,-1,-1],"split_conditions":[6.6137905E3,-1.00923785E3,1.4342923E4,-4.6661567E3,3.3180823E3,1.025649E4,2.0448256E4,-1.17230225E2,-5.54232E1,-3.0433039E1,-7.031654E0,1.1251685E1,3.1425867E1,5.3527554E1,1.1394863E2],"split_indices":[1,1,1,1,1,1,1,0,0,0,0,0,0,0,0],"split_type":[0,0,0,0,0,0,0,0,0,0,0,0,0,0,0],"sum_hessian":[1.51E2,8.1E1,7E1,1.1E1,7E1,5.3E1,1.7E1,3E0,8E0,3.4E1,3.6E1,3.3E1,2E1,1.5E1,2E0],"tree_param":{"num_deleted":"0","num_feature":"8","num_nodes":"15","size_leaf_vector":"1"}},{"base_weights":[-6.533486E0,-6.6726135E2,4.8157837E2,-1.7996636E3,-4.9956342E2,2.52415E2,1.2006989E3,-1.128341E2,-5.370581E1,-3.6416378E1,-1.5209335E1,4.619203E0,2.5368664E1,4.8962257E1,1.1015033E2],"categories":[],"categories_nodes":[],"categories_segments":[],"categories_sizes":[],"default_left":[0,0,0,0,0,0,0,0,0,0,0,0,0,0,0],"id":45,"left_children":[1,3,5,7,9,11,13,-1,-1,-1,-1,-1,-1,-1,-1],"loss_changes":[4.934272E7,1.144455E7,1.419898E7,2.2877E5,2.370775E6,2.7276095E6,2.503978E6,0E0,0E0,0E0,0E0,0E0,0E0,0E0,0E0],"parents":[2147483647,0,0,1,1,2,2,3,3,4,4,5,5,6,6],"right_children":[2,4,6,8,10,12,14,-1,-1,-1,-1,-1,-1,-1,-1],"split_conditions":[5.367995E3,-2.0669556E3,1.4012153E4,-4.6661567E3,1.7899714E3,9.289091E3,2.0448256E4,-1.128341E2,-5.370581E1,-3.6416378E1,-1.5209335E1,4.619203E0,2.5368664E1,4.8962257E1,1.1015033E2],"split_indices":[1,1,1,1,1,1,1,0,0,0,0,0,0,0,0],"split_type":[0,0,0,0,0,0,0,0,0,0,0,0,0,0,0],"sum_hessian":[1.51E2,6.4E1,8.7E1,7E0,5.7E1,6.7E1,2E1,3E0,4E0,2.5E1,3.2E1,4.2E1,2.5E1,1.8E1,2E0],"tree_param":{"num_deleted":"0","num_feature":"8","num_nodes":"15","size_leaf_vector":"1"}},{"base_weights":[-6.3980656E0,-4.6680426E2,6.339543E2,-1.2179988E3,-2.4550865E2,4.4442856E2,1.4181967E3,-1.0860282E2,-4.609338E1,-2.1315924E1,-2.625916E0,1.2223504E1,3.1396336E1,5.3148205E1,1.0647865E2],"categories":[],"categories_nodes":[],"categories_segments":[],"categories_sizes":[],"default_left":[0,0,0,0,0,0,0,0,0,0,0,0,0,0,0],"id":46,"left_children":[1,3,5,7,9,11,13,-1,-1,-1,-1,-1,-1,-1,-1],"loss_changes":[4.5108904E7,1.4495982E7,8.882294E6,3.648172E6,2.4202285E6,1.791167E6,7.6879E5,0E0,0E0,0E0,0E0,0E0,0E0,0E0,0E0],"parents":[2147483647,0,0,1,1,2,2,3,3,4,4,5,5,6,6],"right_children":[2,4,6,8,10,12,14,-1,-1,-1,-1,-1,-1,-1,-1],"split_conditions":[7.542957E3,1.869863E2,1.5891141E4,-4.6661567E3,4.249653E3,1.025649E4,2.0448256E4,-1.0860282E2,-4.609338E1,-2.1315924E1,-2.625916E0,1.2223504E1,3.1396336E1,5.3148205E1,1.0647865E2],"split_indices":[1,1,1,1,1,1,1,0,0,0,0,0,0,0,0],"split_type":[0,0,0,0,0,0,0,0,0,0,0,0,0,0,0],"sum_hessian":[1.51E2,8.8E1,6.3E1,1.9E1,6.9E1,5.2E1,1.1E1,3E0,1.6E1,3.5E1,3.4E1,2.6E1,2.6E1,9E0,2E0],"tree_param":{"num_deleted":"0","num_feature":"8","num_nodes":"15","size_leaf_vector":"1"}},{"base_weights":[-5.916309E0,-5.631549E2,4.7664294E2,-1.5371653E3,-3.9697333E2,2.7667996E2,1.1722512E3,-1.04530205E2,-5.006597E1,-3.0295069E1,-1.0924441E1,6.846074E0,2.62969E1,4.6639877E1,1.0292936E2],"categories":[],"categories_nodes":[],"categories_segments":[],"categories_sizes":[],"default_left":[0,0,0,0,0,0,0,0,0,0,0,0,0,0,0],"id":47,"left_children":[1,3,5,7,9,11,13,-1,-1,-1,-1,-1,-1,-1,-1],"loss_changes":[4.114132E7,1.0882032E7,1.1081524E7,8.72216E5,2.179624E6,2.192323E6,1.90001E6,0E0,0E0,0E0,0E0,0E0,0E0,0E0,0E0],"parents":[2147483647,0,0,1,1,2,2,3,3,4,4,5,5,6,6],"right_children":[2,4,6,8,10,12,14,-1,-1,-1,-1,-1,-1,-1,-1],"split_conditions":[5.9831733E3,-1.6007434E3,1.4342923E4,-4.6661567E3,2.1073599E3,1.0123537E4,2.0448256E4,-1.04530205E2,-5.006597E1,-3.0295069E1,-1.0924441E1,6.846074E0,2.62969E1,4.6639877E1,1.0292936E2],"split_indices":[1,1,1,1,1,1,1,0,0,0,0,0,0,0,0],"split_type":[0,0,0,0,0,0,0,0,0,0,0,0,0,0,0],"sum_hessian":[1.51E2,7E1,8.1E1,9E0,6.1E1,6.4E1,1.7E1,3E0,6E0,2.7E1,3.4E1,4.2E1,2.2E1,1.5E1,2E0],"tree_param":{"num_deleted":"0","num_feature":"8","num_nodes":"15","size_leaf_vector":"1"}},{"base_weights":[-5.7066703E0,-4.2659308E2,5.796777E2,-1.2943762E3,-2.6112524E2,4.0373438E2,1.3084541E3,-1.0061032E2,-4.5783825E1,-2.4086983E1,-4.4864883E0,1.1233304E1,2.8392477E1,4.8657734E1,9.9498375E1],"categories":[],"categories_nodes":[],"categories_segments":[],"categories_sizes":[],"default_left":[0,0,0,0,0,0,0,0,0,0,0,0,0,0,0],"id":48,"left_children":[1,3,5,7,9,11,13,-1,-1,-1,-1,-1,-1,-1,-1],"loss_changes":[3.7697092E7,1.2441536E7,7.678026E6,1.963258E6,2.830509E6,1.429978E6,8.05586E5,0E0,0E0,0E0,0E0,0E0,0E0,0E0,0E0],"parents":[2147483647,0,0,1,1,2,2,3,3,4,4,5,5,6,6],"right_children":[2,4,6,8,10,12,14,-1,-1,-1,-1,-1,-1,-1,-1],"split_conditions":[7.542957E3,-7.8701495E2,1.5891141E4,-4.6661567E3,3.3180823E3,1.025649E4,2.0448256E4,-1.0061032E2,-4.5783825E1,-2.4086983E1,-4.4864883E0,1.1233304E1,2.8392477E1,4.8657734E1,9.9498375E1],"split_indices":[1,1,1,1,1,1,1,0,0,0,0,0,0,0,0],"split_type":[0,0,0,0,0,0,0,0,0,0,0,0,0,0,0],"sum_hessian":[1.51E2,8.8E1,6.3E1,1.3E1,7.5E1,5.2E1,1.1E1,3E0,1E1,3.2E1,4.3E1,2.6E1,2.6E1,9E0,2E0],"tree_param":{"num_deleted":"0","num_feature":"8","num_nodes":"15","size_leaf_vector":"1"}},{"base_weights":[-5.3371296E0,-5.7284656E2,3.919788E2,-8.581187E1,-4.446881E2,2.1767534E2,1.0770995E3,-3.4795628E1,-1.4707562E1,2.4820623E0,2.0448013E1,4.2552765E1,9.618177E1],"categories":[],"categories_nodes":[],"categories_segments":[],"categories_sizes":[],"default_left":[0,0,0,0,0,0,0,0,0,0,0,0,0],"id":49,"left_children":[1,3,5,-1,7,9,11,-1,-1,-1,-1,-1,-1],"loss_changes":[3.4497584E7,8.468526E6,1.0513244E7,0E0,1.988772E6,2.3260932E6,1.80726E6,0E0,0E0,0E0,0E0,0E0,0E0],"parents":[2147483647,0,0,1,1,2,2,4,4,5,5,6,6],"right_children":[2,4,6,-1,8,10,12,-1,-1,-1,-1,-1,-1],"split_conditions":[5.0239795E3,-3.460515E3,1.4342923E4,-8.581187E1,8.068365E2,9.056926E3,2.0448256E4,-3.4795628E1,-1.4707562E1,2.4820623E0,2.0448013E1,4.2552765E1,9.618177E1],"split_indices":[1,1,1,0,1,1,1,0,0,0,0,0,0],"split_type":[0,0,0,0,0,0,0,0,0,0,0,0,0],"sum_hessian":[1.51E2,6.2E1,8.9E1,5E0,5.7E1,7.2E1,1.7E1,2E1,3.7E1,3.9E1,3.3E1,1.5E1,2E0],"tree_param":{"num_deleted":"0","num_feature":"8","num_nodes":"13","size_leaf_vector":"1"}}]},"name":"gbtree"},"learner_model_param":{"base_score":"[6.599056E3]","boost_from_average":"1","num_class":"0","num_feature":"8","num_target":"1"},"objective":{"name":"reg:squarederror","reg_loss_param":{"scale_pos_weight":"1"}}},"version":[3,1,1]}